{
    "Config": {
        "Inputs": 7,
        "Layout": [
            8,
            4,
            1
        ],
        "Activation": 1,
        "Mode": 3,
        "Loss": 2,
        "Bias": true
    },
    "Weights": [
        [
            [
                -6.7475063414416265,
                12.37370431468757,
                3.8760089499004784,
                -0.3930590455856924,
                -7.6615627392700825,
                4.8961029511567205,
                10.409674307371096,
                24.309715578886106
            ],
            [
                -3.4503356389718514,
                3.069087855387763,
                1.4538171530108182,
                -1.2043755009684134,
                -0.16825837840277086,
                4.1058702029904826,
                12.235097807101434,
                -34.78862620712256
            ],
            [
                -3.0546297557852222,
                0.9526327652888723,
                -0.18143797170490086,
                6.714942601711271,
                10.240119393955093,
                -6.294975980129571,
                -23.510328831651055,
                -15.831137510203106
            ],
            [
                0.24643737777692462,
                -0.005318719612208689,
                0.010182071987193463,
                -0.005166622824761593,
                0.017226764952504536,
                20.92005290487702,
                -66.33923689281697,
                90.95677210515828
            ],
            [
                2.055328721635412,
                -0.4893084255387739,
                1.1801688434336317,
                2.8822620274396686,
                -3.695427527194646,
                0.7084316079963766,
                -65.47887209795854,
                1.8830575392662448
            ],
            [
                0.13956605202949127,
                -0.04408036615928774,
                0.2607971000898246,
                -0.027980466107474025,
                0.03377937456969028,
                55.743620332583816,
                12.961888258222706,
                -207.51995030798778
            ],
            [
                3.340828876783511,
                3.5968928550471175,
                1.9477424722790027,
                -1.1566805897132166,
                0.781301265831261,
                2.0102480046583144,
                0.7091532387322804,
                0.07548701844586758
            ],
            [
                -0.3430528480530696,
                2.7061224037058,
                1.9488236415780502,
                2.3982389240373827,
                1.6007759216853839,
                -0.7056300250056365,
                2.878790605093666,
                1.3228894866972727
            ]
        ],
        [
            [
                -1.8688518295279057,
                -1.021147135995297,
                -1.4786496472782718,
                -4123.15236493689,
                1.3408488738403004,
                -0.38968890188698413,
                2.5701162725665867,
                -0.8366074152509811,
                -1.4794094491178338
            ],
            [
                3.9980720986727603,
                -14.162850843969263,
                -1.824521368964814,
                0.15000662760470657,
                -0.14119702757197933,
                12.318533101628923,
                -6.832404579159554,
                0.6325612950556925,
                3.8287886793476456
            ],
            [
                -7.219215299308552,
                0.7951120029769613,
                -5.834939798159925,
                21.875571472721862,
                1.6701479850968743,
                1.078826761448845,
                -0.3638413343752221,
                -6.823809951260556,
                -6.426991150052607
            ],
            [
                -1.3696898113483156,
                -829.5753404597002,
                1.5599459641932605,
                0.5466260558654341,
                0.9315108742616391,
                0.9757324983316064,
                0.046663607118022844,
                -2.369586275639082,
                -1.219729497550846
            ]
        ],
        [
            [
                -27.75232905125405,
                11.81136403413877,
                12.550755203745963,
                -44.904391322454835,
                -0.5735361818706959
            ]
        ]
    ]
}